{"layers":[{"out_depth":3,"out_sx":1,"out_sy":1,"layer_type":"input"},{"out_depth":20,"out_sx":1,"out_sy":1,"layer_type":"fc","num_inputs":3,"l1_decay_mul":0,"l2_decay_mul":1,"filters":[{"sx":1,"sy":1,"depth":3,"w":{"0":0.05478555438117618,"1":0.04429184315040548,"2":0.0943870823579533}},{"sx":1,"sy":1,"depth":3,"w":{"0":0.39416241882854763,"1":-0.045640384459728005,"2":-0.15866883402173354}},{"sx":1,"sy":1,"depth":3,"w":{"0":0.045328967509705234,"1":0.10584868511225672,"2":0.025321198357112683}},{"sx":1,"sy":1,"depth":3,"w":{"0":-0.04137270409367929,"1":-0.037539111619733403,"2":-0.2475016475291029}},{"sx":1,"sy":1,"depth":3,"w":{"0":-0.0529674734247789,"1":-0.10729188614596451,"2":0.08623945181580497}},{"sx":1,"sy":1,"depth":3,"w":{"0":0.06020792579713363,"1":0.05093381441629706,"2":-0.4262368784654509}},{"sx":1,"sy":1,"depth":3,"w":{"0":-0.06814606994478152,"1":-0.1588194737930395,"2":-0.0699627917359225}},{"sx":1,"sy":1,"depth":3,"w":{"0":0.08134475743897034,"1":0.06275173058535169,"2":0.04855178909258292}},{"sx":1,"sy":1,"depth":3,"w":{"0":-0.05055666873783069,"1":-0.10384998847935771,"2":0.08783297590946082}},{"sx":1,"sy":1,"depth":3,"w":{"0":0.11224482945693334,"1":0.046335030598326686,"2":0.0011132139165710478}},{"sx":1,"sy":1,"depth":3,"w":{"0":-0.3300026363958953,"1":-0.015159597872247115,"2":-0.039144605384997845}},{"sx":1,"sy":1,"depth":3,"w":{"0":0.057679843646643074,"1":0.049137745501597295,"2":0.09793268186420837}},{"sx":1,"sy":1,"depth":3,"w":{"0":-0.13161816901217868,"1":0.015208958015450995,"2":-0.1269864792090908}},{"sx":1,"sy":1,"depth":3,"w":{"0":-0.42085353701817524,"1":0.08683827444912978,"2":0.01251127476099221}},{"sx":1,"sy":1,"depth":3,"w":{"0":-0.1744860197731445,"1":-0.14439295517687942,"2":0.646811137995971}},{"sx":1,"sy":1,"depth":3,"w":{"0":0.09511976138324889,"1":0.0476218904809362,"2":0.020228437596450887}},{"sx":1,"sy":1,"depth":3,"w":{"0":-0.08549183945995409,"1":-0.022061428596284165,"2":-0.06827337621497494}},{"sx":1,"sy":1,"depth":3,"w":{"0":-0.17059469195291865,"1":-0.058471554770348086,"2":-0.060271732503304976}},{"sx":1,"sy":1,"depth":3,"w":{"0":-0.047012178174842455,"1":0.032139037659798295,"2":0.43104501231482256}},{"sx":1,"sy":1,"depth":3,"w":{"0":-0.19114530145989822,"1":0.7491917913225253,"2":-0.17517137544864797}}],"biases":{"sx":1,"sy":1,"depth":20,"w":{"0":-0.06203579597412725,"1":0.11989061899985776,"2":-0.04305139399096737,"3":0.15229569115552402,"4":0.003523308899838305,"5":0.10824201287915888,"6":0.15074255575082926,"7":-0.0842607386375554,"8":-0.022809504097059834,"9":-0.07623375577552068,"10":0.1828863151091738,"11":-0.12417305685879909,"12":-0.1603798422947666,"13":-0.0021030376493691187,"14":-0.10546725649273553,"15":-0.03364258118069142,"16":0.0028070715377549876,"17":0.1802825187829071,"18":-0.053451965326592174,"19":-0.2190813403711669}}},{"out_depth":20,"out_sx":1,"out_sy":1,"layer_type":"sigmoid"},{"out_depth":30,"out_sx":1,"out_sy":1,"layer_type":"fc","num_inputs":20,"l1_decay_mul":0,"l2_decay_mul":1,"filters":[{"sx":1,"sy":1,"depth":20,"w":{"0":-0.0071199883075699,"1":-0.015359675921576329,"2":-0.0038892633809302557,"3":0.0002241197645234222,"4":-0.005167914110713678,"5":0.0031512156786803218,"6":-0.002726381252277716,"7":-0.0062412798905825215,"8":-0.005624043350580021,"9":-0.007728321061644239,"10":0.002391442050028784,"11":-0.007335106996310246,"12":0.0015882936058283243,"13":0.005506541094171772,"14":-0.017744531204680926,"15":-0.005433494383321199,"16":-0.00033263311772696645,"17":-0.0009000414119834699,"18":-0.014153295506359579,"19":-0.009431395421445384}},{"sx":1,"sy":1,"depth":20,"w":{"0":-0.00630586856041054,"1":-0.011054366022006478,"2":-0.0080104336334003,"3":-0.0013591150776900555,"4":-0.0031659602281767923,"5":-0.0005715088641719631,"6":-0.00019277230699145593,"7":-0.008012056649882781,"8":-0.0031767815997365443,"9":-0.008040160873553396,"10":0.0031659522756115103,"11":-0.006425765698398666,"12":0.0003827252015482307,"13":0.003510359876853992,"14":-0.010179045763683094,"15":-0.008036440317768807,"16":-0.002537161464950683,"17":0.0021348198410594487,"18":-0.008870612444424851,"19":-0.0114177602786805}},{"sx":1,"sy":1,"depth":20,"w":{"0":0.00020547715517188532,"1":0.01001940671182276,"2":0.0029383568748058723,"3":0.00017172177822524917,"4":-0.00316875661548347,"5":-0.005286319381335439,"6":-0.0005349520512601468,"7":0.00046981083821718346,"8":-0.0035023843074521483,"9":0.0014278461177643896,"10":-0.006025370890190133,"11":0.001105812841889426,"12":-0.002287645430580243,"13":-0.007618919922728363,"14":0.016379191588620015,"15":0.002464453712229214,"16":0.00016909700745982795,"17":-0.0018911860259102303,"18":0.009380913103252982,"19":0.02825273472045905}},{"sx":1,"sy":1,"depth":20,"w":{"0":-0.008500151509280154,"1":-0.012355984243221778,"2":0.0009166142422736072,"3":0.008724654600942463,"4":-0.008279228740019373,"5":0.010757229505556607,"6":-0.004396174793725454,"7":-0.005354203809576664,"8":-0.006420360471674072,"9":-0.007567102261204484,"10":0.013851715845073439,"11":-0.006836287911231666,"12":0.020979708997299742,"13":0.017227069599777926,"14":-0.012916133202699239,"15":-0.007076190808686217,"16":0.005165922920929196,"17":0.009869318266237699,"18":-0.00459483752882995,"19":0.0017164592244502462}},{"sx":1,"sy":1,"depth":20,"w":{"0":0.0006761194294117622,"1":0.017253195092919647,"2":0.004563109726628621,"3":-0.00326953473088875,"4":-0.00882774289706016,"5":-0.010582507643895431,"6":-0.00234353238729847,"7":0.0027902736623416848,"8":-0.008137915170430261,"9":0.004187329573999197,"10":-0.008635482838147173,"11":0.0019721578081192833,"12":-0.0028725227147444925,"13":-0.016936644317408447,"14":0.034088080799747074,"15":0.0019042243386225045,"16":0.0009939503755795956,"17":-0.0014211496798989763,"18":0.01841935743079567,"19":0.054559017716967806}},{"sx":1,"sy":1,"depth":20,"w":{"0":-0.04047822122780304,"1":0.03879647750990754,"2":0.01822901606624091,"3":0.12947220731570705,"4":-0.04756298269273566,"5":0.18961275231886454,"6":0.030027882215791373,"7":0.0023617920480551624,"8":-0.04585054423564852,"9":0.03286664508829468,"10":0.03503744057091716,"11":-0.04084616169377182,"12":0.08966418410071803,"13":0.05623778348871151,"14":-0.2480359358024418,"15":0.019437037271794265,"16":0.039904085346923183,"17":0.024424349749265772,"18":-0.15248342264254958,"19":-0.04465682771791469}},{"sx":1,"sy":1,"depth":20,"w":{"0":-0.01965476924220052,"1":0.005809162058150249,"2":-0.02441476671709077,"3":0.012574771502144593,"4":-0.003128519963712048,"5":0.012415325991685582,"6":0.0222685037150061,"7":-0.01579507137151268,"8":-0.0031709768045523504,"9":-0.004196200933292202,"10":-0.009353371717288669,"11":-0.02029834879522463,"12":-0.01104891669184846,"13":-0.01593236103691032,"14":-0.039724861305972844,"15":-0.007401635333405342,"16":-0.008451800339723016,"17":-0.005388020689643394,"18":-0.045022739515827054,"19":-0.06476842903409617}},{"sx":1,"sy":1,"depth":20,"w":{"0":0.0015163583391459652,"1":0.01271492925468097,"2":0.003647004487271122,"3":-0.00156503167591473,"4":-0.005204834616962074,"5":-0.008361291571221332,"6":-0.0008655263183718444,"7":0.002161423570711853,"8":-0.005164780471077538,"9":0.0015389266242763695,"10":-0.0054917713992613075,"11":-0.0005730711600072821,"12":-0.00006497486556933487,"13":-0.011185503044216576,"14":0.02390194784541283,"15":0.001936088100544055,"16":0.00007881368952471401,"17":-0.0003636515848631617,"18":0.012830993869077219,"19":0.03724272439129381}},{"sx":1,"sy":1,"depth":20,"w":{"0":0.0028867182833414444,"1":0.059434996746914215,"2":0.012614435354269026,"3":-0.005142190110987587,"4":-0.02433941062889388,"5":-0.036581405534270584,"6":-0.007504224978277248,"7":0.005739540366941774,"8":-0.023605795474716928,"9":0.008070553321701228,"10":-0.026882796933729903,"11":0.0014035989563385446,"12":-0.007893461966692142,"13":-0.04975707244383741,"14":0.10620089760008053,"15":0.007651164954515023,"16":-0.0013215477015344377,"17":-0.003565655399278451,"18":0.054185306425313065,"19":0.17224907741565187}},{"sx":1,"sy":1,"depth":20,"w":{"0":-0.009157870419568039,"1":0.016195461975287664,"2":-0.001877743336671033,"3":-0.005394260339061084,"4":-0.012581339874294328,"5":-0.02452394826787747,"6":-0.002385993949207069,"7":-0.006695966060858547,"8":-0.011973728016058493,"9":-0.008832769061680143,"10":-0.011627127485956278,"11":-0.0070485795120672,"12":-0.0022932944857077817,"13":-0.02249394908091567,"14":0.050881648880400004,"15":-0.008609328887806007,"16":0.0004951160549725957,"17":0.0005779987060904489,"18":0.025954042980025096,"19":0.0798886025332588}},{"sx":1,"sy":1,"depth":20,"w":{"0":0.004052941857648603,"1":0.007219728925310775,"2":-0.015163300857812565,"3":0.04164706258209184,"4":0.03035971180498783,"5":0.08517247287218911,"6":0.03548472078167488,"7":0.007785544917119254,"8":0.03069529934357739,"9":0.027093357194214122,"10":0.027667801471777668,"11":0.005557245506856005,"12":0.020167682043480177,"13":0.02121623108362909,"14":-0.16266875585077836,"15":0.020000297602483504,"16":-0.011541002124245397,"17":0.008181426955978031,"18":-0.07965319174777827,"19":-0.2627836566889992}},{"sx":1,"sy":1,"depth":20,"w":{"0":-0.002930211650262743,"1":-0.000982318717129205,"2":-0.002330881428636289,"3":-0.0010377835251614163,"4":-0.001972139913817259,"5":-0.0043562727783201804,"6":-0.0009379767935798401,"7":-0.0019749650385452737,"8":-0.0011693749211998518,"9":-0.0018745977780026731,"10":-0.0019410900943865328,"11":-0.001849474631588685,"12":-0.001142255106071734,"13":-0.0024975957752682073,"14":0.005099912810254948,"15":-0.0021007862397049984,"16":-0.0008112085772832858,"17":0.00030674773965533845,"18":0.0012388288573810535,"19":0.0044857974795152935}},{"sx":1,"sy":1,"depth":20,"w":{"0":0.004271863444639132,"1":0.09279279375046803,"2":0.022266135001441166,"3":-0.010821576466084405,"4":-0.03862346489280583,"5":-0.058528602731308874,"6":-0.008619464834553597,"7":0.0094018472836999,"8":-0.038856755622570974,"9":0.013100359223325921,"10":-0.04283010790295034,"11":0.0009292801963157862,"12":-0.012163640558140478,"13":-0.07862045154956467,"14":0.17212829418959524,"15":0.012838175838603376,"16":-0.0005435473493981515,"17":-0.004827189934691282,"18":0.08698147702679608,"19":0.2769427167435731}},{"sx":1,"sy":1,"depth":20,"w":{"0":-0.008563449692493152,"1":-0.06468198262182656,"2":-0.0034366304058047765,"3":0.025813011177462226,"4":-0.0008795960236187169,"5":0.05313923371201945,"6":0.018416989574294034,"7":-0.008795880609677512,"8":-0.0010455648515829087,"9":-0.010916460869086288,"10":0.03991023521903585,"11":-0.008985588723296885,"12":0.019651957957257826,"13":0.06349773062555036,"14":-0.10623177440450558,"15":-0.008559565838964254,"16":0.019829617242731717,"17":0.02236910936556167,"18":-0.06257926947668706,"19":-0.09624451745619789}},{"sx":1,"sy":1,"depth":20,"w":{"0":0.012530530074053199,"1":-0.016614549322100627,"2":-0.011307134773752841,"3":-0.017658409992725,"4":0.0236518361877419,"5":-0.013847046081226473,"6":0.008195674995579919,"7":0.001554614959591031,"8":0.02491370091355327,"9":0.002727104855004547,"10":-0.007634591501040286,"11":0.0115801829398864,"12":-0.02898251106225972,"13":-0.0029836239259022237,"14":-0.01792909471751955,"15":0.003186071915824149,"16":-0.013030467813599383,"17":-0.01160420340678231,"18":-0.012973977453503217,"19":-0.10337895198169192}},{"sx":1,"sy":1,"depth":20,"w":{"0":-0.00021969370150089248,"1":0.019714502721793918,"2":0.005522511116113824,"3":-0.002145850449967391,"4":-0.007178729726865719,"5":-0.012332063641142234,"6":-0.002315570664795513,"7":0.002669781514997969,"8":-0.008398963222632649,"9":0.0014508741770532854,"10":-0.009146384870386774,"11":0.0010716159217351578,"12":-0.0023352593619977878,"13":-0.01611612191277201,"14":0.037147065131190864,"15":0.0016507747275013407,"16":-0.0004474455587873132,"17":-0.001095167666048065,"18":0.01927092569530676,"19":0.06066908771286057}},{"sx":1,"sy":1,"depth":20,"w":{"0":0.003730817091026101,"1":-0.029653933667781966,"2":-0.005933057824300368,"3":-0.006097059791885621,"4":0.011980338453688788,"5":-0.003765757748175513,"6":0.003304736788205127,"7":-0.0009106468061882749,"8":0.013221126572615849,"9":-0.002134297449222764,"10":0.013446699794583707,"11":0.0040038966708288316,"12":-0.0002629761250167638,"13":0.022636069407167145,"14":-0.024123091240700043,"15":-0.0016748120651990887,"16":-0.00511195726253064,"17":0.001453614287546184,"18":-0.01167031101768649,"19":-0.0806647564895616}},{"sx":1,"sy":1,"depth":20,"w":{"0":0.0018595003744587928,"1":0.03629118750730747,"2":0.00806328440759181,"3":-0.0029964673009828906,"4":-0.014328234002210736,"5":-0.021837680252476635,"6":-0.004711799513883591,"7":0.003971816005473048,"8":-0.013400146341905488,"9":0.003565352352538787,"10":-0.017610431049029023,"11":0.000515483755749472,"12":-0.00395400432516052,"13":-0.029852203544065918,"14":0.06402312096695426,"15":0.004228692962770767,"16":0.00004875029341198397,"17":-0.0023465339066067125,"18":0.03331964244061506,"19":0.10569549193074987}},{"sx":1,"sy":1,"depth":20,"w":{"0":0.004774105551249277,"1":0.08656810531467152,"2":0.01881356267367386,"3":-0.009757161305441093,"4":-0.03600803295859522,"5":-0.05528524246624064,"6":-0.007660811726407534,"7":0.009793085754583597,"8":-0.034709991056774664,"9":0.011254287380606333,"10":-0.039792245276192746,"11":0.000998305475016358,"12":-0.01261306745717663,"13":-0.07202342328028857,"14":0.15861042329754807,"15":0.0113139453873372,"16":-0.0009822143681781107,"17":-0.005601467461220394,"18":0.08076442742441577,"19":0.25657864975412725}},{"sx":1,"sy":1,"depth":20,"w":{"0":-0.10008106635188438,"1":-0.2841206351784629,"2":-0.11437132007355602,"3":0.19298208031230069,"4":0.09782291773532309,"5":0.22162665893840852,"6":0.23535585870081369,"7":-0.12121064512258922,"8":0.08976210547752578,"9":-0.09921594296933968,"10":0.3211993400068772,"11":-0.1074906640219162,"12":0.17976459488548818,"13":0.34098820891411175,"14":-0.3335564795761633,"15":-0.09876014683949874,"16":0.12421891551483286,"17":0.24649972416240443,"18":-0.1972698402674509,"19":-0.5338364004983678}},{"sx":1,"sy":1,"depth":20,"w":{"0":0.01109119064324176,"1":-0.056124698157504295,"2":-0.007010235302845612,"3":-0.04014103146298364,"4":0.012236658257085576,"5":-0.03966814979155691,"6":-0.014165463664570352,"7":-0.004832080067903832,"8":0.012088323777946523,"9":-0.0160807360848824,"10":0.005549740397383938,"11":0.0126739801144361,"12":-0.025321675777648458,"13":0.01749554268265907,"14":0.012817361662215195,"15":-0.010764897356865269,"16":-0.01228763083896544,"17":-0.005640328379337471,"18":0.012473003835952588,"19":-0.041430131561597014}},{"sx":1,"sy":1,"depth":20,"w":{"0":0.0014881778382015822,"1":0.03689625925818009,"2":0.008465918983665945,"3":-0.0033025912704547776,"4":-0.014763880670752958,"5":-0.0228288385783628,"6":-0.002950715767735267,"7":0.003187193643159894,"8":-0.015501546034712767,"9":0.004325420712758446,"10":-0.017032051431320812,"11":-0.000003509354528324628,"12":-0.005026938858579914,"13":-0.030637719250815126,"14":0.06684183064953145,"15":0.0051991251236706065,"16":-0.00014940829753921564,"17":-0.0013669345900495394,"18":0.033418235038437896,"19":0.10707583612758557}},{"sx":1,"sy":1,"depth":20,"w":{"0":0.0008554656605751292,"1":0.0030212837559372803,"2":-0.00781911069410429,"3":0.01805076567265932,"4":0.010823659458916553,"5":0.03703239609508386,"6":0.015734464679898193,"7":0.001780182789487331,"8":0.01171317388185901,"9":0.011455524326381684,"10":0.010428569398500315,"11":0.0013589402573852033,"12":0.0074577332494712555,"13":0.007204416501198715,"14":-0.07107403081889502,"15":0.00911204228580078,"16":-0.004574550378634212,"17":0.003921635738920925,"18":-0.03464926194033434,"19":-0.11615206800795526}},{"sx":1,"sy":1,"depth":20,"w":{"0":0.005461575352974979,"1":-0.025375637061371043,"2":-0.0002922026034161837,"3":0.003754545574331827,"4":0.015888302124487524,"5":0.021792013434046666,"6":0.004664965169592523,"7":0.004503035228987769,"8":0.015672548280813027,"9":0.002740617715284726,"10":0.01691005415862929,"11":0.006192253380583939,"12":0.005501300185996573,"13":0.026632722226530334,"14":-0.0505152952650578,"15":0.003821412591391886,"16":0.002281548742772372,"17":0.0030632667039621163,"18":-0.02140987532291483,"19":-0.0874728820812876}},{"sx":1,"sy":1,"depth":20,"w":{"0":-0.045697008636594025,"1":0.04189560159746942,"2":0.0194965200144959,"3":0.1409583752489963,"4":-0.05309141641698777,"5":0.2067772235301285,"6":0.032141455722818846,"7":0.00028420296806662946,"8":-0.052031734194132366,"9":0.032096561098417124,"10":0.03923756335989453,"11":-0.045462622556559494,"12":0.09793141874742659,"13":0.05865343483144511,"14":-0.2715817523312351,"15":0.019587018502777415,"16":0.04349054982018039,"17":0.02774690743789113,"18":-0.16863088329299772,"19":-0.048753099751797285}},{"sx":1,"sy":1,"depth":20,"w":{"0":0.003302931048045642,"1":0.0809664187348523,"2":-0.016264356318909205,"3":0.008619257465309988,"4":-0.0006857605510177507,"5":0.031650782879239524,"6":0.001486993467547262,"7":0.018792976762411397,"8":-0.00014468567683939646,"9":0.05141140625134808,"10":-0.07217081098094733,"11":0.0009673034337650706,"12":-0.04902546807854718,"13":-0.08255829705334998,"14":-0.11288761694240844,"15":0.038604106755455454,"16":-0.05598143429679167,"17":-0.07149611735172723,"18":-0.09303290429074369,"19":-0.16386650684297976}},{"sx":1,"sy":1,"depth":20,"w":{"0":0.05431889552362301,"1":-0.10437346120163096,"2":0.012095602406872834,"3":-0.09424347643151075,"4":0.04669110684101563,"5":-0.09377437037882266,"6":-0.043139055505311844,"7":0.022068769820471863,"8":0.050128220084336095,"9":-0.009069281100518148,"10":0.013012320418791572,"11":0.05909318599117065,"12":-0.051568025775734376,"13":0.044321519796479726,"14":0.059334637787255125,"15":0.003250408523103301,"16":-0.027677036191884066,"17":-0.018320294080488554,"18":0.06311461561074408,"19":-0.0816526635120526}},{"sx":1,"sy":1,"depth":20,"w":{"0":0.0031722151769435145,"1":0.03608095989911297,"2":0.007395824016376504,"3":-0.004005329100390287,"4":-0.014737053547023003,"5":-0.022479616289913823,"6":-0.0034115221327377454,"7":0.003415675117837385,"8":-0.014580943010717579,"9":0.0049612042645947275,"10":-0.01670008189646863,"11":0.001784731286197864,"12":-0.005585225314800244,"13":-0.028916309523854898,"14":0.06436722269358722,"15":0.004602785071010075,"16":0.0001814017797754179,"17":-0.0020338172561182558,"18":0.033326069182302694,"19":0.10594804372315086}},{"sx":1,"sy":1,"depth":20,"w":{"0":0.0022072863127815304,"1":0.033387994797988735,"2":0.009540075752150226,"3":-0.003924791118831329,"4":-0.015644398942483824,"5":-0.021756810737062985,"6":-0.0026062623158843463,"7":0.0027372286618661686,"8":-0.014119598948030752,"9":0.0038088993003627804,"10":-0.01745531259176675,"11":0.0008631003100331868,"12":-0.004850886148938077,"13":-0.028531890342089843,"14":0.064436669502227,"15":0.0047531613470101096,"16":-0.000443607611276587,"17":-0.00268069391465942,"18":0.03196141997018919,"19":0.1049951113798631}},{"sx":1,"sy":1,"depth":20,"w":{"0":-0.0012571042716771365,"1":-0.004928238020573237,"2":-0.0018298925952586864,"3":0.00041094711821883397,"4":-0.0010081461710006634,"5":0.0017305431989463325,"6":0.00036971444694265145,"7":-0.002043917386658202,"8":0.0011036017137246298,"9":-0.0016367727895638458,"10":0.0013606174510026124,"11":-0.0018787402112301556,"12":0.00017226285718892234,"13":0.004589668956476626,"14":-0.007782173508723231,"15":-0.00024992405570253633,"16":0.0015053920942465944,"17":-0.00019843421738501254,"18":-0.005242924592238059,"19":-0.011560526626006715}}],"biases":{"sx":1,"sy":1,"depth":30,"w":{"0":0.07311783518680104,"1":0.05736874563164008,"2":0.0499681947447153,"3":0.013891166327050026,"4":0.0896935733803317,"5":0.2700956833715871,"6":0.13650587099710113,"7":0.0908520579439972,"8":0.08968289261354889,"9":0.015929321161892655,"10":0.34537410272887503,"11":0.027192413795264814,"12":0.055929288529138685,"13":0.19503687061419547,"14":0.12349678795783037,"15":0.07935191319986695,"16":0.10435745377781881,"17":0.08506613106358119,"18":0.07191109149670959,"19":0.672393791334133,"20":0.04896860077713849,"21":0.10641407584675182,"22":0.15923041039859434,"23":0.15778954941642603,"24":0.3060545351818144,"25":0.13806996710122707,"26":-0.09468136451949415,"27":0.07925580812952829,"28":0.08939957280258559,"29":0.08205854744246797}}},{"out_depth":30,"out_sx":1,"out_sy":1,"layer_type":"relu"},{"out_depth":20,"out_sx":1,"out_sy":1,"layer_type":"fc","num_inputs":30,"l1_decay_mul":0,"l2_decay_mul":1,"filters":[{"sx":1,"sy":1,"depth":30,"w":{"0":0.0017643502225959179,"1":0.002158905577795805,"2":-0.002795814432857915,"3":0.00422819969052993,"4":-0.0062436561091366366,"5":0.03895403839246656,"6":0.009925783283203935,"7":-0.004558816805596794,"8":-0.02173592161341638,"9":-0.01016870047431369,"10":0.03255724860325048,"11":-0.0005495197551018972,"12":-0.035509319739386105,"13":0.019118129396493797,"14":0.011732680019149892,"15":-0.007874838290623108,"16":0.009062874019898554,"17":-0.012102424860452007,"18":-0.031990545488553665,"19":0.09836614469856983,"20":0.0092389556663465,"21":-0.013191724549687703,"22":0.01565039910602511,"23":0.01146795464470521,"24":0.04306063544745192,"25":0.026639126467795385,"26":0.023576310431467892,"27":-0.013810302166490703,"28":-0.01401253291832628,"29":0.0008795779901815882}},{"sx":1,"sy":1,"depth":30,"w":{"0":-0.003982564588149584,"1":-0.004150577664122704,"2":0.007808743772817121,"3":-0.007649870357950818,"4":0.013494322981678993,"5":-0.07282696956599238,"6":-0.015969413036401967,"7":0.009253512435416871,"8":0.039956373511474304,"9":0.018541397129032567,"10":-0.05993196528442549,"11":0.002301345455595327,"12":0.06490089074332221,"13":-0.03520928252880526,"14":-0.020834210554990282,"15":0.013210386340146606,"16":-0.01653300284669304,"17":0.0257161703349209,"18":0.059639794448309885,"19":-0.1838507745737744,"20":-0.01765532784625701,"21":0.024653192902593296,"22":-0.027470213016254463,"23":-0.0203630091694883,"24":-0.0803237315294451,"25":-0.049563082257811655,"26":-0.04294200200489835,"27":0.024075975964887295,"28":0.024098774969741506,"29":-0.002771993798282167}},{"sx":1,"sy":1,"depth":30,"w":{"0":-0.006842668576609378,"1":-0.006195679152523975,"2":0.012841683747255691,"3":-0.014215550659802486,"4":0.023462707769126782,"5":-0.13405796440612924,"6":-0.0307097202373331,"7":0.016847800210327262,"8":0.07621093975361472,"9":0.03575469421448908,"10":-0.11460304035548192,"11":0.0031326287420591417,"12":0.12210425292404627,"13":-0.06568770864891009,"14":-0.03958010430305393,"15":0.02808791000223309,"16":-0.03184151635928119,"17":0.04667921619972024,"18":0.11284708204619891,"19":-0.344576104537778,"20":-0.03222738917633376,"21":0.04762833390896125,"22":-0.049882664132134526,"23":-0.038230203651419,"24":-0.14907977424364155,"25":-0.09201069725051901,"26":-0.0823167639224661,"27":0.0467192803969085,"28":0.046371150459717854,"29":-0.006069949046351808}},{"sx":1,"sy":1,"depth":30,"w":{"0":-0.005811060321262089,"1":-0.004808994946355427,"2":0.009204727961504747,"3":-0.01081397318357211,"4":0.020908760709548127,"5":-0.11463087868820732,"6":-0.026692336212663717,"7":0.013412192803697109,"8":0.06382792506522328,"9":0.0308243651666137,"10":-0.0957269961127893,"11":0.002923457788877349,"12":0.10132298708233693,"13":-0.05488662039886289,"14":-0.03446289184132903,"15":0.022344134164019525,"16":-0.024861133224448415,"17":0.038649467776301,"18":0.09364333351035252,"19":-0.2902646276229358,"20":-0.026838178620319043,"21":0.039261171255768064,"22":-0.04207585088374931,"23":-0.03287516185981433,"24":-0.12366701986425839,"25":-0.07753025376039266,"26":-0.0682319797948433,"27":0.038101201966465076,"28":0.03812385632802682,"29":-0.004213950589771569}},{"sx":1,"sy":1,"depth":30,"w":{"0":-0.0011412762487127619,"1":0.001017653727878351,"2":0.0020355328471909264,"3":-0.0024840261214888306,"4":0.0017229865070119137,"5":-0.013692461402825002,"6":-0.0027855846549772446,"7":0.0016876372099687556,"8":0.006653964209359789,"9":0.0037257762804158673,"10":-0.012314423682709958,"11":0.0009134411020672825,"12":0.012581324775658887,"13":-0.007844842810173414,"14":-0.003972410172671435,"15":0.0027987702468494076,"16":-0.003108582233879562,"17":0.0033500288313633966,"18":0.010622292925308842,"19":-0.03499963521232477,"20":-0.0028987270000095534,"21":0.004968029298771376,"22":-0.004972704464317761,"23":-0.0048239417182188915,"24":-0.015882351650215426,"25":-0.009103541788163357,"26":-0.007407856502386414,"27":0.0046486658552446205,"28":0.005428888298496982,"29":0.00034379397650510053}},{"sx":1,"sy":1,"depth":30,"w":{"0":0.005328930209585803,"1":0.0027225820443139365,"2":-0.006373201027409345,"3":0.008491594185320923,"4":-0.013526236984948148,"5":0.08209796696314722,"6":0.018504644857442694,"7":-0.009650136609484949,"8":-0.04426761973874165,"9":-0.021258728544841836,"10":0.06889402098211493,"11":-0.0017453652146403428,"12":-0.07198207038824998,"13":0.03907762580607764,"14":0.022943879421996567,"15":-0.015422283574532989,"16":0.018035820628160622,"17":-0.02686729258743435,"18":-0.06632957103704824,"19":0.20450478166647934,"20":0.018723512414950107,"21":-0.02776255517213236,"22":0.029776706942001296,"23":0.02338605841979097,"24":0.08911009268563105,"25":0.054978531900545455,"26":0.04879133237736554,"27":-0.028086223520671257,"28":-0.027536432691603573,"29":0.00303227983610672}},{"sx":1,"sy":1,"depth":30,"w":{"0":0.004738478119453991,"1":0.003013480156844062,"2":-0.006883458748246869,"3":0.008075811735265876,"4":-0.013824622544905943,"5":0.07572797062142135,"6":0.017150983110206883,"7":-0.008483652098223153,"8":-0.04042808135415267,"9":-0.0191501119038416,"10":0.06359112678535046,"11":-0.0009383381284177119,"12":-0.06575242422363924,"13":0.036083636530545304,"14":0.02077190974187017,"15":-0.013375050866550482,"16":0.01725898546007455,"17":-0.025005592682670896,"18":-0.06055227242407187,"19":0.1868718690151278,"20":0.017618221714935937,"21":-0.024946996411751115,"22":0.025584737276446678,"23":0.021441164625935816,"24":0.08156154126500337,"25":0.05012821912202978,"26":0.04462286827025377,"27":-0.024192683766723507,"28":-0.024843411454505873,"29":0.003017263142579462}},{"sx":1,"sy":1,"depth":30,"w":{"0":-0.005278329918937851,"1":-0.004550682126810289,"2":0.006663908268254075,"3":-0.007347266947601813,"4":0.01369294495198516,"5":-0.07682670300733682,"6":-0.017028841617488254,"7":0.009048104658866959,"8":0.04284605072247944,"9":0.020087832943418704,"10":-0.0643514685461008,"11":0.0010942977390602483,"12":0.06868578492217543,"13":-0.0370783147176633,"14":-0.02242368487205459,"15":0.013633563316388243,"16":-0.01679396208437272,"17":0.026112676406123768,"18":0.06307553064927314,"19":-0.19295958600935473,"20":-0.01777939856527451,"21":0.02607265244945027,"22":-0.028126397095589114,"23":-0.022816807104750855,"24":-0.08343662452119059,"25":-0.05412761957927122,"26":-0.04566542349986679,"27":0.02613264840507997,"28":0.026312777979910388,"29":-0.0032584480789748173}},{"sx":1,"sy":1,"depth":30,"w":{"0":-0.0036821023176978503,"1":-0.0032718179477981314,"2":0.00648942426364609,"3":-0.008797470100963288,"4":0.013170203949875088,"5":-0.08162239696067165,"6":-0.019175702173823264,"7":0.009856213477379817,"8":0.04487231968068875,"9":0.020396342978554804,"10":-0.06703657458930584,"11":0.002306160151763828,"12":0.07060260668639935,"13":-0.03872418416067286,"14":-0.023511089385947394,"15":0.01436614662514302,"16":-0.0178406003110925,"17":0.025857032947041385,"18":0.06470440777846614,"19":-0.20207221457851435,"20":-0.01972704155496542,"21":0.02750512684184646,"22":-0.029762383107748338,"23":-0.023067482063721684,"24":-0.08778847796619552,"25":-0.055187614783147,"26":-0.047990593178381606,"27":0.02642467875278971,"28":0.026479122555175417,"29":-0.002813045614636572}},{"sx":1,"sy":1,"depth":30,"w":{"0":0.004964476036700041,"1":0.00522040530206796,"2":-0.008934836136761284,"3":0.01081561111576149,"4":-0.017492813807524495,"5":0.0965473933205641,"6":0.02228808659057227,"7":-0.012268004038854415,"8":-0.05490209436794234,"9":-0.02422139673952432,"10":0.08272937695911059,"11":-0.0018584828560352772,"12":-0.08712057490820045,"13":0.04702521962506919,"14":0.02855558140948525,"15":-0.018948194982218957,"16":0.021429575795211594,"17":-0.033673106280531225,"18":-0.08094835935393861,"19":0.2480830295187397,"20":0.024256129361368704,"21":-0.03404456581297918,"22":0.03650394590106456,"23":0.02809468820667643,"24":0.10754452499858796,"25":0.06698825527329998,"26":0.05983599440662134,"27":-0.033287102981982765,"28":-0.033071377308308066,"29":0.0028196022048151974}},{"sx":1,"sy":1,"depth":30,"w":{"0":0.0029517704231461243,"1":0.001855675957809567,"2":-0.0026910037931311883,"3":0.004846166431013726,"4":-0.007210930427218733,"5":0.041814694725121795,"6":0.009714232787709802,"7":-0.005454295601960118,"8":-0.023034537685627545,"9":-0.011472892282684258,"10":0.03515428645950902,"11":-0.0011801181041923936,"12":-0.036596247177311136,"13":0.02140971360743021,"14":0.01191402818950216,"15":-0.008478400130499988,"16":0.009397108758776493,"17":-0.014388003979201319,"18":-0.034187822578272416,"19":0.10554198540467981,"20":0.010132795002121638,"21":-0.013660757519131221,"22":0.01546573418393773,"23":0.013079738838443933,"24":0.04533255707548803,"25":0.028536109097347464,"26":0.025012294576598332,"27":-0.014474235300128391,"28":-0.013748774404254496,"29":0.002378959778156691}},{"sx":1,"sy":1,"depth":30,"w":{"0":0.007777840289848679,"1":0.006752153030369386,"2":-0.013928821757689993,"3":0.016610143345624637,"4":-0.0284513330164883,"5":0.15504335482393214,"6":0.035293851824512404,"7":-0.019505751875762607,"8":-0.08662688856444958,"9":-0.03990122372476143,"10":0.13250939962391978,"11":-0.0036438019797308597,"12":-0.13989510970152746,"13":0.07616658811112723,"14":0.04487169463636607,"15":-0.0307820340974076,"16":0.03590635912354583,"17":-0.05235747642287024,"18":-0.12949170094116938,"19":0.3968500647546963,"20":0.0373201387467121,"21":-0.054634893803608676,"22":0.057475409045197816,"23":0.04503618154224561,"24":0.17017615694415827,"25":0.10644973626839263,"26":0.09463839786200863,"27":-0.05316809462490159,"28":-0.05285604592559883,"29":0.006092062399283882}},{"sx":1,"sy":1,"depth":30,"w":{"0":-0.002264328771406806,"1":-0.001197363242986163,"2":0.0027392198021695346,"3":-0.001964647389621862,"4":0.004497873520558688,"5":-0.026734061542215644,"6":-0.005482684265569086,"7":0.002557872989475911,"8":0.014504076048915264,"9":0.007152603137407703,"10":-0.02170137286856601,"11":0.0006193507937752115,"12":0.022288987374620477,"13":-0.012154047199659814,"14":-0.007426862367536931,"15":0.005347162791627977,"16":-0.00645174178580422,"17":0.008750754442679268,"18":0.021102587816865713,"19":-0.0651167521186062,"20":-0.00568633682735734,"21":0.007279752583621402,"22":-0.010008301995635448,"23":-0.006982031180143323,"24":-0.02772211910154282,"25":-0.017016712000025223,"26":-0.015012818401147439,"27":0.008398279965236333,"28":0.008801540189009591,"29":-0.000613242223183078}},{"sx":1,"sy":1,"depth":30,"w":{"0":-0.005651679475859339,"1":-0.004940946837431075,"2":0.010092281118090273,"3":-0.010306051251118739,"4":0.017886537594902604,"5":-0.09730961614418938,"6":-0.021236128171928915,"7":0.011835900853437217,"8":0.05408749271522491,"9":0.024617331702424628,"10":-0.08235039946957995,"11":0.000469746060909893,"12":0.08641647669926715,"13":-0.0465256928420145,"14":-0.026818140759361005,"15":0.018428005628819095,"16":-0.02255106671036188,"17":0.032511845331954815,"18":0.08093700968499926,"19":-0.24726502972178024,"20":-0.02242466707119004,"21":0.03414476536405492,"22":-0.036034388873580264,"23":-0.027770237030479147,"24":-0.10659873223757106,"25":-0.06656261865925853,"26":-0.05839194471717332,"27":0.03178786222426415,"28":0.031244919345433837,"29":-0.004862774674103389}},{"sx":1,"sy":1,"depth":30,"w":{"0":0.006148640091505355,"1":0.0045847267944330965,"2":-0.010733113432223655,"3":0.010966859384359528,"4":-0.020196153658670887,"5":0.11063004653445804,"6":0.025515476022893738,"7":-0.014014483003227114,"8":-0.06163751207399412,"9":-0.028580689136981727,"10":0.09320831409136592,"11":-0.0024380708607390426,"12":-0.09825011381927337,"13":0.05246060471471132,"14":0.031766806045558704,"15":-0.0220297480662207,"16":0.024823601493765238,"17":-0.03733113619237271,"18":-0.09100620528561432,"19":0.2778478523826379,"20":0.025934407638568777,"21":-0.0387337964459195,"22":0.03904399704382997,"23":0.03232281965042484,"24":0.12078763994303315,"25":0.07580035605781586,"26":0.0666322269989954,"27":-0.03827551099460993,"28":-0.03660199566527813,"29":0.004445867642659309}},{"sx":1,"sy":1,"depth":30,"w":{"0":-0.0042944630154403,"1":-0.003438028723471603,"2":0.006450283778530575,"3":-0.008756206108271792,"4":0.01495168260113443,"5":-0.08178511555026395,"6":-0.017554029575259218,"7":0.010571346302206488,"8":0.04429687339130264,"9":0.020873499104172757,"10":-0.0694283614844866,"11":0.0014369918609012406,"12":0.07185518636966265,"13":-0.03974614583118474,"14":-0.025283487717973206,"15":0.015200183282192734,"16":-0.018959168465768454,"17":0.028529994465637674,"18":0.06717803615333559,"19":-0.20523216795396607,"20":-0.019624516841838576,"21":0.028770600595271024,"22":-0.029733285774171066,"23":-0.02181004974272022,"24":-0.08824823199783206,"25":-0.055158594660135875,"26":-0.048308729293625466,"27":0.027518103827234353,"28":0.02676694962107617,"29":-0.004022876218644894}},{"sx":1,"sy":1,"depth":30,"w":{"0":-0.006349909568043113,"1":-0.005020683255095004,"2":0.010407104858277826,"3":-0.011837159457336884,"4":0.019103312996002958,"5":-0.11141438112059869,"6":-0.02490340372998917,"7":0.012419734841964783,"8":0.06122583200373146,"9":0.028218318061282586,"10":-0.0935461723705806,"11":0.002080606037420741,"12":0.09767182353494795,"13":-0.05300022417157467,"14":-0.03197642418481445,"15":0.02151625249410757,"16":-0.024801826793953916,"17":0.03731225127522603,"18":0.09188466232284083,"19":-0.28107870897741954,"20":-0.026778273951826297,"21":0.03851334905195593,"22":-0.040454408185896754,"23":-0.03174458985821871,"24":-0.12101671817484523,"25":-0.07552128253614925,"26":-0.0663216258727096,"27":0.03773312693277433,"28":0.03695916855192559,"29":-0.0033804724272815233}},{"sx":1,"sy":1,"depth":30,"w":{"0":0.0033476768326743114,"1":0.0025599262971842435,"2":-0.0047202098702009325,"3":0.005986584425896774,"4":-0.009755891244557637,"5":0.05569218718987849,"6":0.013382381233570292,"7":-0.0068004531445367165,"8":-0.03060507922788096,"9":-0.013047950746135595,"10":0.04819798740802287,"11":-0.0005436046661517611,"12":-0.05073824363748661,"13":0.027785876276482373,"14":0.015882220241692318,"15":-0.010607612245464675,"16":0.013041265968239051,"17":-0.01994441746326642,"18":-0.04646134475882059,"19":0.14109878413242566,"20":0.013234512466197236,"21":-0.02007503006736793,"22":0.021675166379042387,"23":0.016574070742104322,"24":0.061530369636581504,"25":0.037078934145891466,"26":0.03386150649029886,"27":-0.019264304751525622,"28":-0.018625436758265057,"29":0.0032066769525790394}},{"sx":1,"sy":1,"depth":30,"w":{"0":-0.0016759085647116664,"1":-0.00023533528725771459,"2":0.0005153877506286352,"3":-0.0010527120586160815,"4":0.001955574534629332,"5":-0.01246523510460341,"6":-0.0034286429235737457,"7":0.0005673878320557584,"8":0.006380574334107361,"9":0.004156339313025731,"10":-0.010624467363188674,"11":0.0013297024922528098,"12":0.011211702227532358,"13":-0.006810918497606547,"14":-0.0037473800632934116,"15":0.003122046647990254,"16":-0.0030895148877384715,"17":0.003937870489358913,"18":0.010085070669553999,"19":-0.030108980990916603,"20":-0.0022905476191650252,"21":0.003268636262727348,"22":-0.004418025073455974,"23":-0.003856080796164596,"24":-0.013444272863213463,"25":-0.008311166817651415,"26":-0.005287339894442951,"27":0.004323274359025935,"28":0.004897773363776505,"29":0.00004139792012535136}},{"sx":1,"sy":1,"depth":30,"w":{"0":0.00867505323043871,"1":0.008021269018175648,"2":-0.01632851364205474,"3":0.018959784630430434,"4":-0.0312737376337777,"5":0.1720790246791996,"6":0.03940519531073896,"7":-0.022401438534058262,"8":-0.09831566532775533,"9":-0.046050850154721955,"10":0.14516888835327316,"11":-0.002389011221878758,"12":-0.15780920097189427,"13":0.08333760526646365,"14":0.05013170087147838,"15":-0.034203336324353496,"16":0.039080745306591544,"17":-0.06018976887583594,"18":-0.14567641897526612,"19":0.4399702628970005,"20":0.041564045208001076,"21":-0.06102169357119145,"22":0.0644568299505768,"23":0.04993737729926604,"24":0.18813629620655953,"25":0.11921389662969196,"26":0.10555557006041542,"27":-0.060668669006204455,"28":-0.05960597533282813,"29":0.005528451707968698}}],"biases":{"sx":1,"sy":1,"depth":20,"w":{"0":-0.02071134509550674,"1":-0.012690283511342777,"2":-0.026475185513353997,"3":-0.004072182285867055,"4":-0.021040802004202507,"5":-0.009094890406720737,"6":-0.014219887630252252,"7":-0.00947429578038592,"8":0.013757206569375744,"9":0.0175116821719009,"10":-0.025994286898916873,"11":0.010618989673361248,"12":-0.010582246491789859,"13":-0.0018418551316140787,"14":0.02553325544678321,"15":-0.007774136265088211,"16":-0.003957978625555347,"17":-0.0053800175986899205,"18":-0.01824183198627614,"19":0.03317482271984877}}},{"out_depth":20,"out_sx":1,"out_sy":1,"layer_type":"sigmoid"},{"out_depth":1,"out_sx":1,"out_sy":1,"layer_type":"fc","num_inputs":20,"l1_decay_mul":0,"l2_decay_mul":1,"filters":[{"sx":1,"sy":1,"depth":20,"w":{"0":-0.14220670860523055,"1":0.2646342386141134,"2":0.49735959096206334,"3":0.4169090447960887,"4":0.05041471536405958,"5":-0.2949601428676303,"6":-0.269666413765728,"7":0.2789248361743562,"8":0.29130067974121315,"9":-0.35735267221253625,"10":-0.1518627340696221,"11":-0.5722958779532403,"12":0.09342376795144934,"13":0.35537548713626227,"14":-0.4017859744096119,"15":0.2959211303042764,"16":0.4044328951891966,"17":-0.2040466761010053,"18":0.044053263446329274,"19":-0.6370770243200334}}],"biases":{"sx":1,"sy":1,"depth":1,"w":{"0":0.39683855255685546}}},{"out_depth":1,"out_sx":1,"out_sy":1,"layer_type":"regression","num_inputs":1}]}